<?xml version="1.0"?>
<opencv_storage>
<cascade>
  <stageType>BOOST</stageType>
  <featureType>HAAR</featureType>
  <height>16</height>
  <width>16</width>
  <stageParams>
    <boostType>GAB</boostType>
    <minHitRate>9.9900001287460327e-01</minHitRate>
    <maxFalseAlarm>5.0000000000000000e-01</maxFalseAlarm>
    <weightTrimRate>9.4999999999999996e-01</weightTrimRate>
    <maxDepth>1</maxDepth>
    <maxWeakCount>100</maxWeakCount></stageParams>
  <featureParams>
    <maxCatCount>0</maxCatCount>
    <featSize>1</featSize>
    <mode>ALL</mode></featureParams>
  <stageNum>13</stageNum>
  <stages>
    <!-- stage 0 -->
    <_>
      <maxWeakCount>3</maxWeakCount>
      <stageThreshold>-1.3749747276306152e+00</stageThreshold>
      <weakClassifiers>
        <_>
          <internalNodes>
            0 -1 2 2.0620566606521606e-01</internalNodes>
          <leafValues>
            -9.9000000953674316e-01 8.7012988328933716e-01</leafValues></_>
        <_>
          <internalNodes>
            0 -1 6 1.9258821010589600e-01</internalNodes>
          <leafValues>
            -9.7219294309616089e-01 5.0832122564315796e-01</leafValues></_>
        <_>
          <internalNodes>
            0 -1 5 5.8899302035570145e-02</internalNodes>
          <leafValues>
            -8.9329594373703003e-01 9.4126045703887939e-01</leafValues></_></weakClassifiers></_>
    <!-- stage 1 -->
    <_>
      <maxWeakCount>3</maxWeakCount>
      <stageThreshold>-1.2036648988723755e+00</stageThreshold>
      <weakClassifiers>
        <_>
          <internalNodes>
            0 -1 30 -4.0606003999710083e-01</internalNodes>
          <leafValues>
            8.5964912176132202e-01 -9.5294117927551270e-01</leafValues></_>
        <_>
          <internalNodes>
            0 -1 15 4.0560936927795410e-01</internalNodes>
          <leafValues>
            -9.2766928672790527e-01 6.3909024000167847e-01</leafValues></_>
        <_>
          <internalNodes>
            0 -1 35 8.4919534623622894e-02</internalNodes>
          <leafValues>
            -8.8922357559204102e-01 6.7694562673568726e-01</leafValues></_></weakClassifiers></_>
    <!-- stage 2 -->
    <_>
      <maxWeakCount>3</maxWeakCount>
      <stageThreshold>-1.3890062570571899e+00</stageThreshold>
      <weakClassifiers>
        <_>
          <internalNodes>
            0 -1 12 -4.9123620986938477e-01</internalNodes>
          <leafValues>
            1.7431192100048065e-01 -9.7314047813415527e-01</leafValues></_>
        <_>
          <internalNodes>
            0 -1 3 3.4495443105697632e-01</internalNodes>
          <leafValues>
            -8.8389950990676880e-01 5.7624250650405884e-01</leafValues></_>
        <_>
          <internalNodes>
            0 -1 13 -4.4881254434585571e-01</internalNodes>
          <leafValues>
            4.6803376078605652e-01 -8.9644682407379150e-01</leafValues></_></weakClassifiers></_>
    <!-- stage 3 -->
    <_>
      <maxWeakCount>4</maxWeakCount>
      <stageThreshold>-2.1221604347229004e+00</stageThreshold>
      <weakClassifiers>
        <_>
          <internalNodes>
            0 -1 32 -2.9264692217111588e-02</internalNodes>
          <leafValues>
            -1.6666667163372040e-01 -9.3395251035690308e-01</leafValues></_>
        <_>
          <internalNodes>
            0 -1 53 -3.0891735106706619e-02</internalNodes>
          <leafValues>
            3.8973116874694824e-01 -7.4327331781387329e-01</leafValues></_>
        <_>
          <internalNodes>
            0 -1 36 -2.0619931165128946e-03</internalNodes>
          <leafValues>
            3.9225947856903076e-01 -7.5222533941268921e-01</leafValues></_>
        <_>
          <internalNodes>
            0 -1 55 4.0244479896500707e-04</internalNodes>
          <leafValues>
            -9.4274359941482544e-01 3.0729079246520996e-01</leafValues></_></weakClassifiers></_>
    <!-- stage 4 -->
    <_>
      <maxWeakCount>5</maxWeakCount>
      <stageThreshold>-1.6119863986968994e+00</stageThreshold>
      <weakClassifiers>
        <_>
          <internalNodes>
            0 -1 48 4.8200100660324097e-02</internalNodes>
          <leafValues>
            -9.1816365718841553e-01 -3.9999999105930328e-02</leafValues></_>
        <_>
          <internalNodes>
            0 -1 38 1.1052662134170532e-01</internalNodes>
          <leafValues>
            -6.8946093320846558e-01 5.2575027942657471e-01</leafValues></_>
        <_>
          <internalNodes>
            0 -1 31 -2.1991297602653503e-02</internalNodes>
          <leafValues>
            5.9039729833602905e-01 -5.2929377555847168e-01</leafValues></_>
        <_>
          <internalNodes>
            0 -1 41 1.5639270422980189e-03</internalNodes>
          <leafValues>
            -1. 3.0336058139801025e-01</leafValues></_>
        <_>
          <internalNodes>
            0 -1 0 4.1393865831196308e-03</internalNodes>
          <leafValues>
            2.6683419942855835e-01 -8.9811962842941284e-01</leafValues></_></weakClassifiers></_>
    <!-- stage 5 -->
    <_>
      <maxWeakCount>5</maxWeakCount>
      <stageThreshold>-1.8479368686676025e+00</stageThreshold>
      <weakClassifiers>
        <_>
          <internalNodes>
            0 -1 54 4.1652940213680267e-02</internalNodes>
          <leafValues>
            -9.1625124216079712e-01 -5.4054055362939835e-02</leafValues></_>
        <_>
          <internalNodes>
            0 -1 18 -5.2677810192108154e-01</internalNodes>
          <leafValues>
            3.0888986587524414e-01 -7.1049159765243530e-01</leafValues></_>
        <_>
          <internalNodes>
            0 -1 23 -5.6594654917716980e-02</internalNodes>
          <leafValues>
            4.7876825928688049e-01 -6.2752193212509155e-01</leafValues></_>
        <_>
          <internalNodes>
            0 -1 50 8.8856654474511743e-04</internalNodes>
          <leafValues>
            -9.7475582361221313e-01 2.8178963065147400e-01</leafValues></_>
        <_>
          <internalNodes>
            0 -1 1 9.2956598382443190e-04</internalNodes>
          <leafValues>
            2.9679304361343384e-01 -8.9484322071075439e-01</leafValues></_></weakClassifiers></_>
    <!-- stage 6 -->
    <_>
      <maxWeakCount>5</maxWeakCount>
      <stageThreshold>-1.7306387424468994e+00</stageThreshold>
      <weakClassifiers>
        <_>
          <internalNodes>
            0 -1 52 5.2532248198986053e-02</internalNodes>
          <leafValues>
            -8.9645254611968994e-01 3.5294118523597717e-01</leafValues></_>
        <_>
          <internalNodes>
            0 -1 39 3.9572488516569138e-02</internalNodes>
          <leafValues>
            -6.9713938236236572e-01 3.1599846482276917e-01</leafValues></_>
        <_>
          <internalNodes>
            0 -1 20 -7.6561253517866135e-03</internalNodes>
          <leafValues>
            3.2094660401344299e-01 -7.9987055063247681e-01</leafValues></_>
        <_>
          <internalNodes>
            0 -1 17 -4.2497539520263672e-01</internalNodes>
          <leafValues>
            4.6003487706184387e-01 -5.9592574834823608e-01</leafValues></_>
        <_>
          <internalNodes>
            0 -1 37 -4.1229065391235054e-04</internalNodes>
          <leafValues>
            -1. 2.4561157822608948e-01</leafValues></_></weakClassifiers></_>
    <!-- stage 7 -->
    <_>
      <maxWeakCount>5</maxWeakCount>
      <stageThreshold>-1.9234095811843872e+00</stageThreshold>
      <weakClassifiers>
        <_>
          <internalNodes>
            0 -1 25 4.7147475183010101e-02</internalNodes>
          <leafValues>
            -8.8983857631683350e-01 5.8333331346511841e-01</leafValues></_>
        <_>
          <internalNodes>
            0 -1 56 -1.7357690259814262e-02</internalNodes>
          <leafValues>
            3.1736573576927185e-01 -7.1852809190750122e-01</leafValues></_>
        <_>
          <internalNodes>
            0 -1 10 2.8306045569479465e-03</internalNodes>
          <leafValues>
            -6.8219095468521118e-01 3.3824124932289124e-01</leafValues></_>
        <_>
          <internalNodes>
            0 -1 29 2.8842970728874207e-02</internalNodes>
          <leafValues>
            -8.8391703367233276e-01 2.7804216742515564e-01</leafValues></_>
        <_>
          <internalNodes>
            0 -1 45 7.0449695922434330e-03</internalNodes>
          <leafValues>
            2.7803584933280945e-01 -9.3132638931274414e-01</leafValues></_></weakClassifiers></_>
    <!-- stage 8 -->
    <_>
      <maxWeakCount>5</maxWeakCount>
      <stageThreshold>-2.1321797370910645e+00</stageThreshold>
      <weakClassifiers>
        <_>
          <internalNodes>
            0 -1 33 5.5916026234626770e-02</internalNodes>
          <leafValues>
            -8.8603991270065308e-01 4.1666665673255920e-01</leafValues></_>
        <_>
          <internalNodes>
            0 -1 47 -4.2837806046009064e-02</internalNodes>
          <leafValues>
            4.0486875921487808e-02 -7.9448163509368896e-01</leafValues></_>
        <_>
          <internalNodes>
            0 -1 7 -1.4489519526250660e-04</internalNodes>
          <leafValues>
            2.1266858279705048e-01 -8.6781752109527588e-01</leafValues></_>
        <_>
          <internalNodes>
            0 -1 40 1.9119780045002699e-03</internalNodes>
          <leafValues>
            2.3363988101482391e-01 -8.8532429933547974e-01</leafValues></_>
        <_>
          <internalNodes>
            0 -1 24 3.5970546305179596e-03</internalNodes>
          <leafValues>
            -9.8821288347244263e-01 2.2099740803241730e-01</leafValues></_></weakClassifiers></_>
    <!-- stage 9 -->
    <_>
      <maxWeakCount>5</maxWeakCount>
      <stageThreshold>-2.0974049568176270e+00</stageThreshold>
      <weakClassifiers>
        <_>
          <internalNodes>
            0 -1 48 4.8268854618072510e-02</internalNodes>
          <leafValues>
            -9.1641181707382202e-01 -2.5000000000000000e-01</leafValues></_>
        <_>
          <internalNodes>
            0 -1 16 1.2244281172752380e-01</internalNodes>
          <leafValues>
            -8.0947619676589966e-01 -3.0983954668045044e-02</leafValues></_>
        <_>
          <internalNodes>
            0 -1 51 4.9098450690507889e-03</internalNodes>
          <leafValues>
            -7.8901737928390503e-01 2.3789159953594208e-01</leafValues></_>
        <_>
          <internalNodes>
            0 -1 44 6.7981565371155739e-04</internalNodes>
          <leafValues>
            1.9467066228389740e-01 -9.1081136465072632e-01</leafValues></_>
        <_>
          <internalNodes>
            0 -1 9 -1.8508455250412226e-03</internalNodes>
          <leafValues>
            2.2282972931861877e-01 -9.7602611780166626e-01</leafValues></_></weakClassifiers></_>
    <!-- stage 10 -->
    <_>
      <maxWeakCount>5</maxWeakCount>
      <stageThreshold>-2.0100593566894531e+00</stageThreshold>
      <weakClassifiers>
        <_>
          <internalNodes>
            0 -1 28 -5.4576981067657471e-01</internalNodes>
          <leafValues>
            -4.3478261679410934e-02 -8.9330744743347168e-01</leafValues></_>
        <_>
          <internalNodes>
            0 -1 49 -4.3536998331546783e-02</internalNodes>
          <leafValues>
            -8.0908229574561119e-03 -8.0383789539337158e-01</leafValues></_>
        <_>
          <internalNodes>
            0 -1 19 1.6417180886492133e-03</internalNodes>
          <leafValues>
            -8.0595350265502930e-01 2.1451899409294128e-01</leafValues></_>
        <_>
          <internalNodes>
            0 -1 46 1.3031300622969866e-03</internalNodes>
          <leafValues>
            2.2412699460983276e-01 -8.8717269897460938e-01</leafValues></_>
        <_>
          <internalNodes>
            0 -1 8 -1.3481690548360348e-03</internalNodes>
          <leafValues>
            3.4460070729255676e-01 -7.5155997276306152e-01</leafValues></_></weakClassifiers></_>
    <!-- stage 11 -->
    <_>
      <maxWeakCount>6</maxWeakCount>
      <stageThreshold>-1.6200374364852905e+00</stageThreshold>
      <weakClassifiers>
        <_>
          <internalNodes>
            0 -1 11 -2.0589115098118782e-02</internalNodes>
          <leafValues>
            -1.1538461595773697e-01 -8.9463412761688232e-01</leafValues></_>
        <_>
          <internalNodes>
            0 -1 34 -4.6572647988796234e-02</internalNodes>
          <leafValues>
            3.0873271822929382e-01 -6.4678490161895752e-01</leafValues></_>
        <_>
          <internalNodes>
            0 -1 43 -5.1488988101482391e-03</internalNodes>
          <leafValues>
            2.3819798231124878e-01 -8.1383448839187622e-01</leafValues></_>
        <_>
          <internalNodes>
            0 -1 22 1.2894698884338140e-03</internalNodes>
          <leafValues>
            2.0672084391117096e-01 -8.9229208230972290e-01</leafValues></_>
        <_>
          <internalNodes>
            0 -1 27 -1.4088149182498455e-03</internalNodes>
          <leafValues>
            -1. 2.1433660387992859e-01</leafValues></_>
        <_>
          <internalNodes>
            0 -1 57 -1.7280202358961105e-02</internalNodes>
          <leafValues>
            5.1762968301773071e-01 -4.6509084105491638e-01</leafValues></_></weakClassifiers></_>
    <!-- stage 12 -->
    <_>
      <maxWeakCount>5</maxWeakCount>
      <stageThreshold>-1.8877614736557007e+00</stageThreshold>
      <weakClassifiers>
        <_>
          <internalNodes>
            0 -1 26 -1.1065026745200157e-02</internalNodes>
          <leafValues>
            1. -8.8501411676406860e-01</leafValues></_>
        <_>
          <internalNodes>
            0 -1 4 6.8134700995869935e-05</internalNodes>
          <leafValues>
            -8.0800086259841919e-01 9.9490210413932800e-02</leafValues></_>
        <_>
          <internalNodes>
            0 -1 21 -7.2711278335191309e-05</internalNodes>
          <leafValues>
            2.4526482820510864e-01 -7.4588811397552490e-01</leafValues></_>
        <_>
          <internalNodes>
            0 -1 42 3.8002911023795605e-03</internalNodes>
          <leafValues>
            2.1364183723926544e-01 -1.</leafValues></_>
        <_>
          <internalNodes>
            0 -1 14 -3.2150994520634413e-03</internalNodes>
          <leafValues>
            -9.1645413637161255e-01 3.3749991655349731e-01</leafValues></_></weakClassifiers></_></stages>
  <features>
    <_>
      <rects>
        <_>
          0 0 16 1 -1.</_>
        <_>
          4 0 8 1 2.</_></rects>
      <tilted>0</tilted></_>
    <_>
      <rects>
        <_>
          0 2 2 3 -1.</_>
        <_>
          1 2 1 3 2.</_></rects>
      <tilted>0</tilted></_>
    <_>
      <rects>
        <_>
          0 2 16 7 -1.</_>
        <_>
          4 2 8 7 2.</_></rects>
      <tilted>0</tilted></_>
    <_>
      <rects>
        <_>
          0 2 16 8 -1.</_>
        <_>
          4 2 8 8 2.</_></rects>
      <tilted>0</tilted></_>
    <_>
      <rects>
        <_>
          0 3 3 1 -1.</_>
        <_>
          1 3 1 1 3.</_></rects>
      <tilted>0</tilted></_>
    <_>
      <rects>
        <_>
          0 3 6 4 -1.</_>
        <_>
          3 3 3 4 2.</_></rects>
      <tilted>0</tilted></_>
    <_>
      <rects>
        <_>
          0 3 16 10 -1.</_>
        <_>
          4 3 8 10 2.</_></rects>
      <tilted>0</tilted></_>
    <_>
      <rects>
        <_>
          0 13 4 1 -1.</_>
        <_>
          2 13 2 1 2.</_></rects>
      <tilted>0</tilted></_>
    <_>
      <rects>
        <_>
          1 8 3 2 -1.</_>
        <_>
          1 9 3 1 2.</_></rects>
      <tilted>0</tilted></_>
    <_>
      <rects>
        <_>
          1 10 7 2 -1.</_>
        <_>
          1 11 7 1 2.</_></rects>
      <tilted>0</tilted></_>
    <_>
      <rects>
        <_>
          1 14 11 2 -1.</_>
        <_>
          1 15 11 1 2.</_></rects>
      <tilted>0</tilted></_>
    <_>
      <rects>
        <_>
          2 2 4 4 -1.</_>
        <_>
          2 2 2 2 2.</_>
        <_>
          4 4 2 2 2.</_></rects>
      <tilted>0</tilted></_>
    <_>
      <rects>
        <_>
          2 4 12 12 -1.</_>
        <_>
          2 10 12 6 2.</_></rects>
      <tilted>0</tilted></_>
    <_>
      <rects>
        <_>
          2 4 13 12 -1.</_>
        <_>
          2 10 13 6 2.</_></rects>
      <tilted>0</tilted></_>
    <_>
      <rects>
        <_>
          3 0 10 1 -1.</_>
        <_>
          8 0 5 1 2.</_></rects>
      <tilted>0</tilted></_>
    <_>
      <rects>
        <_>
          3 0 11 16 -1.</_>
        <_>
          3 4 11 8 2.</_></rects>
      <tilted>0</tilted></_>
    <_>
      <rects>
        <_>
          3 1 12 5 -1.</_>
        <_>
          7 1 4 5 3.</_></rects>
      <tilted>0</tilted></_>
    <_>
      <rects>
        <_>
          3 3 10 12 -1.</_>
        <_>
          3 9 10 6 2.</_></rects>
      <tilted>0</tilted></_>
    <_>
      <rects>
        <_>
          3 4 10 12 -1.</_>
        <_>
          3 10 10 6 2.</_></rects>
      <tilted>0</tilted></_>
    <_>
      <rects>
        <_>
          3 9 4 2 -1.</_>
        <_>
          4 10 2 2 2.</_></rects>
      <tilted>1</tilted></_>
    <_>
      <rects>
        <_>
          3 12 6 2 -1.</_>
        <_>
          3 13 6 1 2.</_></rects>
      <tilted>0</tilted></_>
    <_>
      <rects>
        <_>
          3 14 2 1 -1.</_>
        <_>
          4 14 1 1 2.</_></rects>
      <tilted>0</tilted></_>
    <_>
      <rects>
        <_>
          4 0 1 4 -1.</_>
        <_>
          3 1 1 2 2.</_></rects>
      <tilted>1</tilted></_>
    <_>
      <rects>
        <_>
          4 0 4 2 -1.</_>
        <_>
          4 0 2 2 2.</_></rects>
      <tilted>1</tilted></_>
    <_>
      <rects>
        <_>
          4 0 5 4 -1.</_>
        <_>
          3 1 5 2 2.</_></rects>
      <tilted>1</tilted></_>
    <_>
      <rects>
        <_>
          4 1 3 3 -1.</_>
        <_>
          5 2 1 3 3.</_></rects>
      <tilted>1</tilted></_>
    <_>
      <rects>
        <_>
          4 1 4 2 -1.</_>
        <_>
          4 1 2 1 2.</_>
        <_>
          6 2 2 1 2.</_></rects>
      <tilted>0</tilted></_>
    <_>
      <rects>
        <_>
          4 2 3 2 -1.</_>
        <_>
          4 2 3 1 2.</_></rects>
      <tilted>1</tilted></_>
    <_>
      <rects>
        <_>
          4 2 8 14 -1.</_>
        <_>
          4 9 8 7 2.</_></rects>
      <tilted>0</tilted></_>
    <_>
      <rects>
        <_>
          4 3 3 4 -1.</_>
        <_>
          4 3 3 2 2.</_></rects>
      <tilted>1</tilted></_>
    <_>
      <rects>
        <_>
          4 4 8 12 -1.</_>
        <_>
          4 10 8 6 2.</_></rects>
      <tilted>0</tilted></_>
    <_>
      <rects>
        <_>
          4 13 8 3 -1.</_>
        <_>
          4 14 8 1 3.</_></rects>
      <tilted>0</tilted></_>
    <_>
      <rects>
        <_>
          4 13 10 3 -1.</_>
        <_>
          4 14 10 1 3.</_></rects>
      <tilted>0</tilted></_>
    <_>
      <rects>
        <_>
          5 0 3 4 -1.</_>
        <_>
          6 1 1 4 3.</_></rects>
      <tilted>1</tilted></_>
    <_>
      <rects>
        <_>
          5 0 3 5 -1.</_>
        <_>
          6 1 1 5 3.</_></rects>
      <tilted>1</tilted></_>
    <_>
      <rects>
        <_>
          5 0 7 8 -1.</_>
        <_>
          5 2 7 4 2.</_></rects>
      <tilted>0</tilted></_>
    <_>
      <rects>
        <_>
          5 1 2 8 -1.</_>
        <_>
          5 1 1 4 2.</_>
        <_>
          6 5 1 4 2.</_></rects>
      <tilted>0</tilted></_>
    <_>
      <rects>
        <_>
          5 1 3 7 -1.</_>
        <_>
          6 1 1 7 3.</_></rects>
      <tilted>0</tilted></_>
    <_>
      <rects>
        <_>
          5 1 7 4 -1.</_>
        <_>
          5 3 7 2 2.</_></rects>
      <tilted>0</tilted></_>
    <_>
      <rects>
        <_>
          5 2 3 4 -1.</_>
        <_>
          6 3 1 4 3.</_></rects>
      <tilted>1</tilted></_>
    <_>
      <rects>
        <_>
          5 5 3 6 -1.</_>
        <_>
          6 5 1 6 3.</_></rects>
      <tilted>0</tilted></_>
    <_>
      <rects>
        <_>
          6 1 6 3 -1.</_>
        <_>
          8 1 2 3 3.</_></rects>
      <tilted>0</tilted></_>
    <_>
      <rects>
        <_>
          7 0 8 2 -1.</_>
        <_>
          9 0 4 2 2.</_></rects>
      <tilted>0</tilted></_>
    <_>
      <rects>
        <_>
          7 9 8 2 -1.</_>
        <_>
          7 10 8 1 2.</_></rects>
      <tilted>0</tilted></_>
    <_>
      <rects>
        <_>
          7 10 4 2 -1.</_>
        <_>
          7 10 2 1 2.</_>
        <_>
          9 11 2 1 2.</_></rects>
      <tilted>0</tilted></_>
    <_>
      <rects>
        <_>
          8 4 5 3 -1.</_>
        <_>
          7 5 5 1 3.</_></rects>
      <tilted>1</tilted></_>
    <_>
      <rects>
        <_>
          8 8 3 3 -1.</_>
        <_>
          8 9 3 1 3.</_></rects>
      <tilted>0</tilted></_>
    <_>
      <rects>
        <_>
          11 0 4 8 -1.</_>
        <_>
          13 0 2 8 2.</_></rects>
      <tilted>0</tilted></_>
    <_>
      <rects>
        <_>
          11 0 5 3 -1.</_>
        <_>
          10 1 5 1 3.</_></rects>
      <tilted>1</tilted></_>
    <_>
      <rects>
        <_>
          11 2 4 6 -1.</_>
        <_>
          13 2 2 6 2.</_></rects>
      <tilted>0</tilted></_>
    <_>
      <rects>
        <_>
          11 4 4 4 -1.</_>
        <_>
          11 5 4 2 2.</_></rects>
      <tilted>0</tilted></_>
    <_>
      <rects>
        <_>
          11 11 2 2 -1.</_>
        <_>
          11 11 2 1 2.</_></rects>
      <tilted>1</tilted></_>
    <_>
      <rects>
        <_>
          12 0 4 3 -1.</_>
        <_>
          11 1 4 1 3.</_></rects>
      <tilted>1</tilted></_>
    <_>
      <rects>
        <_>
          12 1 4 6 -1.</_>
        <_>
          12 1 2 3 2.</_>
        <_>
          14 4 2 3 2.</_></rects>
      <tilted>0</tilted></_>
    <_>
      <rects>
        <_>
          12 1 4 3 -1.</_>
        <_>
          11 2 4 1 3.</_></rects>
      <tilted>1</tilted></_>
    <_>
      <rects>
        <_>
          12 13 4 2 -1.</_>
        <_>
          14 13 2 2 2.</_></rects>
      <tilted>0</tilted></_>
    <_>
      <rects>
        <_>
          13 4 2 11 -1.</_>
        <_>
          14 4 1 11 2.</_></rects>
      <tilted>0</tilted></_>
    <_>
      <rects>
        <_>
          13 5 2 8 -1.</_>
        <_>
          14 5 1 8 2.</_></rects>
      <tilted>0</tilted></_></features></cascade>
</opencv_storage>
